{"c": [0.08698808536318492, 2.600666003386121, 1.7833693774716406, -4.373536303496778, -1.7856133626978463, -0.2774565762062125, -1.5813540492023332, 6.763603766154727, -2.6164760497879382, -8.267224992265437, -7.045719629278265, 1.80166054366443, -3.7604584871797258, 0.8705624386401949, -5.3570262926726455], "k": [0.7067601729095222, 2.059456296605065, 0.7076088600418323, -4.473967826021511, -2.195450917998664, 1.2551351236926145, -1.281970539477652, 6.645762051180632, -3.2935039029240665, -8.44779159217585, -7.257248188951902, 1.3702177579578658, -3.2910036166990455, 0.2732640639147196, -6.040641086000537], "y": [1.4628130548430143, 2.886765126035314, 1.7699599068905123, -4.280295661927605, -2.7072980419799313, 0.18517553181340665, -2.794141998235662, 6.223599216783852, -2.4805191190695663, -9.124614695309393, -7.25557239316229, 1.5294424851814183, -2.9291521300792196, 0.07628128278232274, -4.954455934221803], "?": [0.5502106443161279, 2.338359411823361, 1.5807761610849111, -4.17150209719172, -1.9941591702977448, 0.20318217636537725, -2.7017036112341466, 6.6505387311128645, -5.182374514657255, -8.563921607069323, -5.152169291060381, 0.22909122002874033, -3.0121838404010863, -0.5995690341099464, -4.286431759421266], "p": [1.7454114235299394, 2.284916609939046, 1.9589294766886665, -4.443291102228823, -1.6653279368576832, -1.7265649357017783, -3.8357112356360195, 6.695096388521754, -2.895513925974667, -7.747653531813286, -6.972410073419806, 1.542271802651249, -3.5539775861266674, 0.5108052054905178, -5.473314361611494], "/": [-0.40384960813064563, 2.82888673609074, 1.5401143593314544, -4.76941738799105, -3.281871254588542, -0.06028730429108349, -3.1859556946451657, 7.474506165545365, -3.727600215288872, -8.269454356641196, -7.540761601009681, 1.6397253559844869, -2.496332414822881, -0.7606116034953783, -6.0330278163541475], "u": [0.9903620446302208, 2.39181329291317, 1.6386942106934193, -3.7993291280735395, -2.569009910525353, -0.33482183676446337, -1.1593064577426204, 5.9307508775940745, -1.4063893058871135, -9.149417535615482, -7.752217832799258, 2.1369465172715487, -2.9772664262261883, 0.10010429425770126, -5.4486089898305], "f": [2.032405149970132, 3.9771014122251627, 0.7566320207960764, -4.106100293428886, -2.9542934619639585, -1.5136420908395438, -1.4190419975551654, 7.452864388939311, -2.468018679403977, -9.454892405815519, -6.067395911449678, 2.1495098757553124, -3.3300455737194286, -0.31471630818773333, -5.218134582310809], "e": [3.4084856259305596, 1.4070329389601188, -0.9163554722856759, -1.0250352385249921, -1.8118355655118807, -1.0229495967983346, 0.7834787477127813, 2.539117397593503, -0.42175118128006167, -4.135066190139496, -0.937890571393491, 2.057533731629516, -1.727085105466583, -0.9968961170530963, -1.5607136516397178], "r": [2.2642150490031714, 2.7008933477967565, 2.541761286793677, -4.647023132938444, -3.842243452248251, 0.6790839311628363, -4.129296238116725, 7.0328175699350135, -2.2664094362455223, -9.361963332364196, -7.519709328901866, 1.1605924088215707, -3.0940185763548893, 0.4514713319902509, -5.765715153574428], "-": [0.44030795448997273, 2.7143821767433174, 2.795892175181727, -5.2494410415933155, -3.0209629637134823, -0.29071850985857955, -3.9901733835172006, 8.005940178766565, -2.886695562158151, -8.415878728179383, -8.096279562696878, 1.2961171132648017, -2.1952405830224557, -0.2865077740713158, -4.959627388949886], "'": [1.133717082161495, 1.1639885946124533, -1.1823830848240064, -1.5739893719301383, -1.2150125411330162, -0.20322652400753843, -0.9239711190821375, 2.374418124842611, 0.3080210305484472, -2.7216614953036578, -0.7921615738200981, -1.0479578778390284, 0.37856747690600406, 0.23656704345405957, -1.7855821505214766], "a": [-0.7395369268095142, 1.0234979225723762, -1.321038769592458, -0.6682302892496612, -0.4289777846078857, 0.504142624447564, 1.049747432797374, 0.27057558524204084, 1.2107894323893338, -1.7984862277382434, -0.3108524422927002, 1.2719318039224121, -0.3996910696720065, -1.3433178658635796, -2.063139009802538], "l": [-0.2669630641225005, 2.284843691805815, 2.259048568480087, -5.049963887357495, -1.0415615528655937, -0.26835712939345197, -3.4295873628947984, 6.98811667483001, -3.7538562366146224, -7.945190167918598, -7.1587144857649765, 0.6260866974491945, -4.076009390456653, 0.41953936689093896, -4.599817269568339], "g": [1.3090052698115402, 2.048169893839334, 2.4685057935995385, -5.781147187413774, -3.4276759174421727, -1.1823069446000902, -3.649580356327754, 7.196528075727499, -3.8836297689144983, -9.104531986021458, -6.616989975066435, 1.6596150978784279, -3.1618088533836013, -1.5025555608974863, -5.642121644191473], "n": [1.3767681905763143, 3.540125929759758, 2.3673787841787073, -5.116050175617885, -2.5534486374717407, -1.0341900373717625, -3.62415176385666, 8.181589676203295, -2.7743048925758145, -9.094938894242132, -6.326626452128787, 1.646877150201905, -2.7009146138652165, -0.8356962908396666, -6.326479153380257], "m": [0.8361041001729281, 2.1821051470607298, 2.653930699688448, -5.552273839873246, -1.4645912929128346, -0.7259278072268236, -3.28761513311618, 6.6211877950591305, -4.392171907458329, -8.874542372845175, -5.843854091996475, 0.5699672845001165, -3.5448618228472326, 0.26382364999092933, -6.500684559836251], ";": [1.2669557030576857, 0.4475057607962373, 1.0483382704650417, -4.938382729962573, -2.1856515476221707, -0.5657140456880005, -4.441601119716882, 6.306911180741777, -3.680271691575266, -7.620012221732507, -5.953386540443755, -0.41482144142170874, -2.900182048568021, 0.08789872732911322, -5.637889588121353], "w": [0.22780544591192264, 1.5747309047630587, -0.1251966761656503, -3.8599371730724563, -1.9082316935097434, 0.2673440841446729, -3.9625099620584034, 5.8391675888096675, -3.1916997373560814, -8.299738815612276, -5.7792948017522665, 0.45991344549477037, -3.5630339171648284, -0.62992440858186, -6.582483459463107], "z": [1.1274383827128187, 2.577016281363207, 2.312299638650707, -5.75118207871462, -2.741569197688503, -1.196380631052654, -3.416122153895561, 7.331874039818647, -2.6085435478046413, -9.23882169858246, -6.3265391974771745, 1.405217053428865, -3.080330631595753, -0.715384075459206, -6.435370132545288], "b": [0.5211407579262476, 2.229298308629253, -1.469901771417492, -1.2916071680389623, -1.9823464273390454, 1.424457596510888, -2.190886775072803, 4.153764504696508, -2.1273290111936722, -3.0021552012586996, -1.78153453306884, 0.7607746644467048, -0.860856105412584, 0.11931192326955345, -1.853201055601877], "h": [0.5574407471243006, 2.9887323085277213, 1.7842586115437962, -5.205623266203193, -0.20194971349496543, -0.6706338063081352, -2.4484434447887975, 7.733443288223067, -2.1324348999908542, -8.271655883227844, -5.7219532894371286, 2.0084546864801816, -3.509013309770851, -0.6088393271811379, -4.489455495554949], "o": [0.7206264059774037, 1.4548630214421927, 2.3699407618267987, -4.7333822677298265, -2.2813910862686466, 1.605054222816105, -3.399861331480116, 6.7186075282036875, -3.8334024468770527, -9.707876685304331, -7.774432558522006, -0.10927790008556693, -4.129295159802154, 0.2582448551886234, -4.866915567208241], "j": [0.8066449171377008, 2.739751577118777, -0.6011857297351008, -1.581217479881393, -1.3066823638374756, 0.7287360435460564, -1.1473759369089123, 2.747085969383363, -0.24589529957088135, -2.9143914666488557, -0.6011833014581013, 0.610063829804417, 0.5998312219996491, 0.8151755405414796, -1.6222294308266545], "!": [0.569317332598124, 0.6168017124302093, -0.8965543385785673, -1.254867892333805, 0.2473855248998863, 0.7718852530271156, -0.8534264301176605, 2.0577284265364124, -1.2248969498262403, -1.9949240543100073, -0.7514661674618275, -1.7674899228436767, -0.06559835801651466, 1.4715645467886778, -0.6718663249996201], "v": [-0.02230841703876671, 1.386200063664579, 1.6477100754120309, -4.0118441007421755, -2.397075843081166, -0.8794856355173271, -3.6586315890767445, 6.36593583273749, -4.315682293295049, -7.7650141717975485, -6.626968777434592, -0.28138862263199715, -2.3265840252453813, 2.101374720157111, -3.6131574053684417], "_": [3.187898758567484, 1.9165143990827609, -0.7106943343989103, -1.3333363900047028, -1.9260647292290163, -0.6384525350169423, -0.24026187261714874, 2.6974405905005683, -0.32098189295396823, -5.499921557909877, -3.368299817423181, 1.311872904259552, -1.4501619931680922, -0.4627725839969976, -3.656911685912663], "x": [1.0189692887405783, 1.5471095267239985, -1.2310318444448185, -3.903263271661846, -0.7743294384533325, -2.2096767123480747, -1.8530619120139662, 2.2911635642750428, -0.6746760503126328, -4.133255257409824, -1.5133867342925718, 0.09289099421600222, -0.2828322329128245, -0.6986915840909622, -4.109814202325404], "i": [1.0355679190557987, 1.028766685307229, 2.128089698068893, -4.340814502247847, -1.2596524819236017, 0.10059359832360207, -2.060256702908561, 7.465085663256563, -4.212683756441955, -8.278389714505956, -6.005997953062823, 0.5906187275865105, -3.383734375873468, 0.4513333785025455, -2.3392882921462412], "s": [1.1996601605536188, 1.8077962603394093, 2.385728842038541, -5.128346046104627, -3.711938166049036, 1.3797652854160933, -3.542086662483913, 7.144535630751782, -3.788656861819919, -7.746480365237872, -7.031376984643273, 1.6090363723261316, -3.2176273615686135, -1.419780244029977, -4.659528106852055], "q": [0.33915765193768266, 1.6339854241023326, 2.9329088194207733, -4.1813360506343304, -2.935305731606519, -0.10438360490281451, -2.2595060633341677, 4.999237668993849, -2.8862100675232067, -7.875451816815662, -6.883735469933099, 2.8624611196739416, -2.6743251720464913, -0.2983159093960679, -4.809713722264824], ".": [-0.016635548576790615, 1.4474380638311908, 0.03880539658051896, 0.538669680406073, 0.3105695269959202, 0.6213843074027734, 0.8216613538737305, 1.4612701208493029, 0.3435172476595293, -0.29138672456799, -1.9389969819521418, 1.9158910353363214, -0.4478302417106426, 1.5206043650785874, 0.10302202062818827], "\"": [1.444943940866303, 3.5670341349917916, 2.7735237354772764, -5.030877148418547, -2.80811542756146, -2.0540231777275277, -3.670721848743171, 7.168754225731647, -2.782130828023447, -8.917277030795516, -5.437817164329923, 1.7208255064983486, -3.0005846709554334, -0.7491086494334027, -6.286847554218323], " ": [2.8574255497399763, 0.7664725678072477, -0.771198851163642, -2.3223312196904593, -1.881907322959105, -2.109656339505997, -0.4827176751231227, 5.4311561021276225, -2.129830612707246, -7.185588961539354, -4.561818566897831, 1.5349981767692642, -5.358115434250215, -0.394388701245479, -2.952540013435106], "d": [1.254102216501061, 2.4623103116142318, 1.2976268012167815, -4.598565759809095, -2.892590284262055, 0.40628228246331716, -2.5571536431405515, 6.979552410192402, -3.0735450796974852, -8.810134550513004, -7.359527223573243, 1.2233790768124375, -3.3614676546266344, -0.5781640612457939, -6.089279369207338], "t": [-0.07482571917788441, 2.3320007137324463, 0.057617235583324614, -3.3620036122623262, -1.2006945872791897, -0.2796102554047772, -2.9192263982852933, 4.554709504116791, -3.285497686186807, -3.2302685141286944, -2.3772218069615563, -0.5576850959281303, -0.23327358546975227, 0.03358323823361678, -1.7388526506949165], ",": [-0.1158128703235097, 4.318254170299836, -0.04875472602390275, -3.1087151853420183, -1.6242027566031814, 0.7016486418235042, -3.2565800951580934, 6.38381942808927, -1.0144682463939876, -5.564394601497803, -2.5009173659223034, -0.3169315808065216, -0.6301836439138778, 0.11066691657948849, -3.848432810313701], "\n": [1.4173953023824248, 2.21398327112889, 2.7931599959779403, -5.789385119546635, -1.7473590031835629, -0.4578826515755971, -2.9781695239722223, 6.267704037444256, -2.2284995406393215, -8.933595977593113, -6.787973001624038, 1.4258412730201264, -3.4265176297747804, -0.8489631470658909, -5.398270081072949]}